{
  "type": "mlp",
  "feature_names": [
    "mat_pawn",
    "mat_knight",
    "mat_bishop",
    "mat_rook",
    "mat_queen",
    "pst_pawn",
    "pst_knight",
    "pst_bishop",
    "pst_rook",
    "pst_queen",
    "pst_king",
    "side_to_move",
    "mob_pawn",
    "mob_knight",
    "mob_bishop",
    "mob_rook",
    "mob_queen",
    "pawn_doubled",
    "pawn_isolated",
    "pawn_passed",
    "king_shield",
    "king_attackers",
    "open_file_rook"
  ],
  "scaler": {
    "mean": [
      -0.00579738245273873,
      0.027028599127484246,
      -0.030082404265632575,
      0.01133301017935046,
      0.003897237033446437,
      0.07661027666894603,
      0.018253999158985627,
      0.017449345911554615,
      0.0020000000308496653,
      0.0015084828150702864,
      0.017413476090291376,
      -0.020785264178381,
      -0.01016965584100824,
      0.3661173048957828,
      0.5263111972855066,
      0.4266117304895783,
      0.39937954435288414,
      -0.024110518662142512,
      -0.012137663596703829,
      -0.00433349491032477,
      -0.05207949587978672,
      0.12148327678138633,
      0.02971400872515754
    ],
    "std": [
      1.1792458510301618,
      0.6845758919744385,
      0.6683021534417868,
      0.4587888089500683,
      0.29470086891603225,
      0.31862489880142364,
      0.3307606600467312,
      0.12198424045489757,
      0.03503649568645407,
      0.058663437211036576,
      0.20259781854845937,
      0.999783963060639,
      2.2148057123585874,
      5.380650220983626,
      5.930528567323737,
      5.2474677786743325,
      6.261133687965461,
      1.0256196459555,
      1.1086003352413372,
      0.7977857318536814,
      1.1961167939873905,
      1.1821039643104228,
      0.6704476229769715
    ]
  },
  "layers": [
    {
      "W": [
        [
          -0.22080805113396992,
          -0.28741251297855447,
          0.02373488691604165,
          -0.13368103023328123,
          -0.10155278997268428,
          0.2097173425348507,
          0.08886188221053601,
          -0.14972416373333364,
          0.4345393155361029,
          -0.17970108592882347,
          0.3056984186892242,
          -0.003192327398476851,
          -0.21868863905230115,
          -0.24886290553329696,
          0.0006556814353287225,
          -0.27729976049532906,
          0.007424966943997321,
          0.1470767051589208,
          -0.05023759141219408,
          -0.27880680672371316,
          -0.043809035097093364,
          0.19542473326482704,
          -0.2700049074032295
        ],
        [
          0.4385745917269457,
          0.22133161841021473,
          0.0014190386232715059,
          0.43645709012144085,
          0.07146757659734321,
          0.34596029739293466,
          -0.17315598979768257,
          -0.012579986224436122,
          0.1198860162120107,
          0.1282028934909603,
          0.3783891026064703,
          0.2756175092489588,
          0.12775028913809935,
          0.22886748431657933,
          0.21850938324617386,
          0.11131467334721781,
          0.07543650255764776,
          -0.14375991150139084,
          -0.17145362591139054,
          -0.10305993088871884,
          0.29346119052643477,
          -0.19934860530085483,
          0.3398380364017263
        ],
        [
          0.35733380693048683,
          0.14139428056263117,
          0.6761415485244242,
          0.517804777255117,
          -0.049509535298230815,
          -0.2179634959832044,
          0.13420051606948818,
          -0.27630044011616745,
          -0.16058910433779036,
          0.08908959803650726,
          -0.01865925313821163,
          0.08836690632268107,
          -0.22918008029378195,
          0.23615089722409188,
          0.059839544663172914,
          0.1833983499799661,
          -0.6242807189328549,
          -0.11280177024997126,
          -0.11826757110689402,
          -0.22318204970849637,
          -0.13669679009261168,
          0.16287525049317386,
          0.26632337989003224
        ],
        [
          0.1741827067081921,
          -0.28596587400876566,
          0.30407213773095887,
          0.06230673458359663,
          -0.39147509671503394,
          -0.24559965331567377,
          -0.12870075580978443,
          -0.3652940768867739,
          -0.35987671788946696,
          0.1306795332484288,
          -0.2597207119124464,
          -0.08778254513235585,
          -0.055559963764039676,
          0.13141637302084022,
          0.014140814345829871,
          0.09754183931102473,
          -0.15305513264505788,
          0.06299313413142067,
          -0.1265072370932844,
          -0.29591423616155055,
          0.13254542741635006,
          0.10026054111400672,
          0.24519563729184157
        ],
        [
          -0.16094288410628382,
          0.09241695268233913,
          0.5292368813596396,
          0.11949431923616473,
          -0.02419038570198687,
          -0.03859622803814622,
          -0.11919337079978744,
          0.2367479847132679,
          -0.018124258412018455,
          -0.1310839217622425,
          -0.42010291504698055,
          0.037338463797000405,
          0.12828444645013415,
          -0.23540816781005094,
          0.19979749374998712,
          0.4053453423612293,
          -0.006078907220774454,
          0.29997728544938657,
          -0.2713030725881981,
          -0.6965200916732138,
          0.08488467383592424,
          0.3845496500841734,
          0.2381596912972888
        ],
        [
          -0.31500293147237735,
          -0.22390838682216924,
          0.17564813276504881,
          -0.2108276803714835,
          0.0911051410729299,
          0.10571010539783307,
          -0.2863614153740837,
          -0.3022990662058866,
          0.32384108671460776,
          0.006951307413306352,
          0.29927974819905223,
          0.0184579181534329,
          -0.2109279953444164,
          -0.3260789601695173,
          0.1411988630790043,
          -0.05411002811301738,
          0.23028539744526005,
          0.08627651559802194,
          0.26497584333693386,
          0.047779920989544686,
          0.08014206117383717,
          0.18451611595607806,
          0.13719373198802895
        ],
        [
          -0.2428339602333432,
          0.42342270869556414,
          0.5061464005341059,
          -0.2591799664021597,
          0.4051707026700255,
          0.43095325080881736,
          0.5055211677086066,
          -0.1579080606888583,
          -0.12453641470592923,
          -0.6549364611791328,
          -0.023287389947797183,
          0.2475894395714892,
          -0.3187608856218383,
          -0.04882399268873252,
          0.014158656597233931,
          0.3082376189939526,
          0.09303927455139827,
          -0.012207100591356074,
          -0.007590263723137001,
          -0.052618131382451416,
          -0.1595564929433216,
          0.14723299452973088,
          0.15937799350794019
        ],
        [
          0.18030961958579847,
          -0.01755238907928316,
          0.15463483560687427,
          -0.08803025128621544,
          -0.27645898815952624,
          0.22504674043347514,
          -0.5075132297510138,
          -0.3140905327318419,
          0.1801590268247068,
          0.28382799977017803,
          0.18257847912098568,
          0.04744955632107733,
          0.09288149170399201,
          -0.10136270058970012,
          -0.010377090053443285,
          0.4151886069807004,
          -0.1623150785003189,
          -0.01486154460584977,
          -0.08885242924581943,
          -0.021310833528594194,
          -0.27815056042045216,
          -0.14584567570041795,
          0.22913383214722965
        ],
        [
          0.25481071774057057,
          -0.14213170733021405,
          -0.10892994640960632,
          0.4114289024186879,
          0.4993617611967738,
          -0.2669180144367587,
          -0.17696010828064146,
          -0.23772185625613013,
          0.012896706261136134,
          -0.30047112302318757,
          0.2930152174180887,
          0.31217960429284153,
          0.24225234066428003,
          -0.06507439920358332,
          -0.06930422103633027,
          -0.097491061771542,
          -0.006350229390571473,
          -0.14711751816409982,
          -0.4371904151599727,
          0.4607872457116011,
          0.19040973085540455,
          0.17032022236327138,
          0.3741685536960146
        ],
        [
          0.35100204001289886,
          -0.058624685373221706,
          -0.3489860609178846,
          0.14584437779813292,
          -0.08858609166874779,
          0.031601970438975585,
          -0.04135700341118735,
          -0.07639328116456574,
          -0.10929577667702216,
          -0.44539373379025177,
          -0.06282480839817257,
          0.12353648544234828,
          -0.013476857111651688,
          -0.028022603863325283,
          -0.13087579608378766,
          -0.12825005843607634,
          0.06295447616202926,
          -0.19561488663341697,
          -0.01737128721826782,
          -0.010073847708249902,
          0.4062350784820508,
          0.0691982957783988,
          -0.046851820680284074
        ],
        [
          -0.3629695563539345,
          0.11231267225673862,
          -0.3660010535878332,
          -0.034137057460670084,
          -0.3208083641832472,
          -0.17679440220665782,
          0.3483841924659609,
          0.141724677525716,
          -0.062323252400501496,
          0.11947876225286254,
          0.009409045955656413,
          -0.18742946279817402,
          0.24170573867104791,
          0.13179211260377396,
          0.07312604696695116,
          -0.07122224377694947,
          -0.1249330074880871,
          0.11129738289947122,
          -0.31731019211898986,
          -0.0454287052405786,
          -0.12882565672145355,
          -0.3421751152650913,
          -0.054607754564686896
        ],
        [
          0.33926995829680534,
          -0.0651425190871084,
          -0.3414428569251049,
          -0.1387418144049985,
          -0.04617432426471715,
          -0.06534332385836443,
          -0.2575943961396268,
          -0.07031771592093183,
          0.2040963677171583,
          0.28062457763590165,
          -0.08506842797254267,
          -0.14950357228091593,
          -0.07427937025908478,
          -0.33261344301997453,
          -0.2264272485186769,
          -0.07236795817622209,
          0.09191778031299701,
          0.043431471687553305,
          -0.06536552765951731,
          0.18152819646846308,
          0.03698625252748291,
          -0.14667605388654115,
          -0.19853667280463463
        ],
        [
          0.13082985579433845,
          -0.3817236575211113,
          -0.08669607084779597,
          -0.1489803420893087,
          -0.10058549127271156,
          -0.20653735538745024,
          -0.06921869079227426,
          -0.006046075771367574,
          0.14464733467262764,
          0.05011160494199955,
          0.21330702937022883,
          -0.04826048554971368,
          -0.36255396397570694,
          0.1183315394808107,
          -0.08162660736170917,
          -0.14332504253217418,
          0.1567853120505441,
          0.092721208607756,
          0.23228804372193387,
          -0.11008281763847393,
          -0.30375093605484677,
          -0.20055318967143498,
          0.4453961488917425
        ],
        [
          -0.4591681600451769,
          -0.4973135038284105,
          -0.25065232242525237,
          -0.44815609656048794,
          -0.3832632005649397,
          -0.2744338014318579,
          -0.031680540859597386,
          -0.18453832699073353,
          -0.08083445775169674,
          -0.034628209916106906,
          -0.2050439893134374,
          -0.1043660939411337,
          0.014596871940144128,
          0.08114917898182523,
          -0.11137951464060242,
          0.05286020803224993,
          -0.08109246799610971,
          0.2111542253108206,
          0.13676140950922502,
          0.07129932302523538,
          -0.1422954275502078,
          0.14752096825150798,
          -0.16030184830199104
        ],
        [
          -0.23509498484165514,
          -0.15518952183938325,
          -0.014350756065833522,
          0.06485432008946185,
          -0.427054552640109,
          0.2409724781403388,
          -0.1423007309965279,
          0.06532147383217678,
          -0.03971968747023511,
          -0.03284511635672261,
          -0.24507849220472355,
          -0.14514860931046283,
          0.17509288260943157,
          -0.07378559149555818,
          -0.2636929605741541,
          -0.30032343313604054,
          0.08247729556820325,
          -0.2181796121869442,
          0.3528521090072566,
          -0.20097362898586302,
          -0.12853221476143492,
          0.06773356607867925,
          -0.2048320285954415
        ],
        [
          0.015146563714903218,
          0.23346409140924074,
          0.06399138040014503,
          0.19387418475125365,
          -0.1309573114062411,
          -0.07911659137546903,
          0.27011706167608207,
          0.28199950995453005,
          -0.16294073572191875,
          0.3072383008569545,
          -0.27945520609687724,
          0.22667450155379062,
          0.2309133248979609,
          0.18904295408166982,
          0.23806885673654257,
          -0.1654140993567019,
          0.11718918192591823,
          0.103834561276304,
          0.12720039643280653,
          0.3094050503243379,
          -0.1912427792330602,
          -0.19990769880915157,
          0.295955228298333
        ],
        [
          -0.024240430465092968,
          -0.27572292202317855,
          -0.33758206278574837,
          0.003399888090167148,
          0.16760269238906986,
          0.061871692512923925,
          -0.1840827301771075,
          -0.19906249449086463,
          -0.2706671761905187,
          0.10461953817477303,
          0.33292267976630074,
          0.0986352402385126,
          0.3953706926169448,
          0.11932507863803164,
          -0.046011832176836076,
          0.05868065194233393,
          -0.35423616270400005,
          -0.30370304547960825,
          0.023478558587506075,
          -0.2839685659261183,
          0.14130903201376677,
          0.09339926078297238,
          0.025094923135252807
        ],
        [
          -0.009520477294857988,
          -0.24080770104248317,
          -0.20038509957511766,
          0.0887314506709138,
          0.3529749152120263,
          0.021196587310632325,
          -0.01759223521312393,
          -0.057764063926430145,
          0.04769646673693479,
          -0.0696244950037437,
          0.004038608644681144,
          -0.2899557541515231,
          0.4396736319977124,
          -0.30751421220394143,
          -0.21888236401365554,
          -0.0618532955933566,
          0.024064821141111643,
          0.08853579446314008,
          -0.26053507583124064,
          0.0967755875817693,
          0.002478486257842571,
          -0.08488110198921334,
          0.02349996134625772
        ],
        [
          0.17273347479646417,
          0.13603012481906132,
          -0.0736813092019738,
          -0.16359707522217412,
          0.23677482391122504,
          -0.11248470449837819,
          0.10165163159832831,
          0.39271410888356933,
          -0.1753917745238093,
          -0.15421121801461066,
          -0.06693733632871765,
          0.17055895910079963,
          0.15766912866511393,
          0.02389432349039943,
          -0.11532819203212527,
          0.19828440618490636,
          0.040798737760296445,
          -0.23441386001037579,
          0.1225384573589364,
          -0.05664044945945467,
          0.33659543857714086,
          0.3350673889514952,
          -0.3500280030302133
        ],
        [
          0.15381612686674295,
          0.6184739015770744,
          0.6879523915796084,
          0.7936442539866697,
          0.8859909291004057,
          -0.03838264537715328,
          0.07672592684944635,
          -0.14403847776119444,
          0.08548498021996584,
          0.11381317126817897,
          -0.1597835742624793,
          -0.3487038951659184,
          0.05881810145790397,
          0.12802123327963705,
          0.15744586059362506,
          -0.07336285761703702,
          0.21903853691541453,
          0.02839725158941538,
          -0.0809315735479897,
          0.18257269665861198,
          0.02239716856360917,
          0.04127159623862628,
          -0.0889329520405009
        ],
        [
          0.37272378434714715,
          -0.0738161747041739,
          -0.0029188023277824686,
          0.4531859106322478,
          0.4878890256122192,
          0.2295919793232649,
          -0.16448797565507872,
          -0.20859556968432658,
          -0.08103865947511132,
          -0.16873886401827726,
          -0.14350889311830572,
          -0.00829247979975098,
          0.3130469523208389,
          -0.38892191580695157,
          -0.15957733418226003,
          -0.19223350699950914,
          0.006078992011416244,
          -0.23634500509152465,
          -0.10231387031898423,
          -0.25694687308151976,
          -0.13068588609389015,
          0.21361265912171026,
          -0.2883125971245797
        ],
        [
          -0.17256522618527578,
          0.01404789872426046,
          0.3736455960795934,
          -0.041656970339303157,
          -0.020196875036571842,
          -0.22858276922150084,
          0.02163187888811778,
          -0.0745297247400371,
          -0.04969027883037258,
          -0.10883868343926731,
          0.3605777609993449,
          -0.1490740214506355,
          -0.09660589294464829,
          -0.31991721221370184,
          -0.11361824120807326,
          0.014008807424249415,
          0.3595608726969925,
          -0.18602430169168968,
          0.2782566155417579,
          0.13385880898364927,
          0.07151492120486636,
          0.053757177736910765,
          -0.02029605979432143
        ],
        [
          -0.36971197665544336,
          -0.16269265261023552,
          0.09996641900067622,
          0.17476331571363965,
          0.24467846888924683,
          -0.005044825867382284,
          -0.23272824181847515,
          -0.1460750922768018,
          0.32293109006168197,
          0.11899316103639893,
          0.0031389439448148196,
          -0.17278337627722087,
          -0.09703476109049862,
          -0.2575089469380731,
          0.12570870652272192,
          -0.01176241298010029,
          -0.052215862737925965,
          -0.0033797835997815304,
          -0.21756849641184292,
          0.2940905380074048,
          -0.10861083428661537,
          0.01864623969914733,
          0.10832398028996261
        ],
        [
          -0.16363784397503928,
          -0.16787955709233232,
          -0.313900663749887,
          -0.3153597041354093,
          -0.33987814222361207,
          0.0023389613290440404,
          -0.14518771148584625,
          0.11568461627683944,
          -0.030768440509332775,
          -0.09294680666234843,
          0.06843481751739901,
          0.05536406266867477,
          -0.14168834150049905,
          -0.21150581278416206,
          -0.09596417509180176,
          -0.06629384812535812,
          -0.3326745934594598,
          -0.006890290014788315,
          0.019604908998279876,
          -0.01392319377706824,
          0.04752015909496976,
          0.02529376195909015,
          -0.03070457947361905
        ]
      ],
      "b": [
        -0.21368862352378695,
        0.12471456627028173,
        0.622972140765257,
        -0.43654535764156494,
        -0.3181963505170353,
        -0.1569969950393001,
        -0.1254487403156858,
        -0.20539575047388298,
        0.3866575848475034,
        -0.534675034501484,
        -0.030521901164126494,
        -0.7197345079356302,
        -0.27277056299167196,
        -0.07074153178725592,
        0.012475438274634706,
        0.1550822949237606,
        -0.008362870176536627,
        -0.6389238904767766,
        -0.022403084907221447,
        0.7419866068501465,
        0.14175175455021044,
        -0.12961001209183104,
        -0.05964702697737053,
        0.4457859598490247
      ],
      "activation": "relu"
    },
    {
      "W": [
        [
          -0.23915640858790935,
          0.34772508318472806,
          0.17121467873311028,
          -0.29114726897443777,
          0.1324585084464856,
          0.36807816829676415,
          0.14502277808699968,
          -0.19027153399645644,
          0.16923259716456288,
          -0.2333835915487404,
          -0.2531154014148704,
          -0.2613024318575452,
          -0.2622092586754265,
          -0.35434639525286005,
          -0.21074972608033657,
          0.18320475671157235,
          -0.21559583779419395,
          -0.24262827118845887,
          0.2938586091514706,
          0.3089587570183526,
          0.22010448011041506,
          -0.13172961518900875,
          -0.18107918828817987,
          -0.3138311834974859
        ]
      ],
      "b": [
        -0.26847395396425194
      ],
      "activation": "sigmoid"
    }
  ]
}