{
  "type": "mlp",
  "feature_names": [
    "mat_pawn",
    "mat_knight",
    "mat_bishop",
    "mat_rook",
    "mat_queen",
    "pst_pawn",
    "pst_knight",
    "pst_bishop",
    "pst_rook",
    "pst_queen",
    "pst_king",
    "side_to_move",
    "mob_pawn",
    "mob_knight",
    "mob_bishop",
    "mob_rook",
    "mob_queen",
    "pawn_doubled",
    "pawn_isolated",
    "pawn_passed",
    "king_shield",
    "king_attackers",
    "open_file_rook"
  ],
  "scaler": {
    "mean": [
      -0.00579738245273873,
      0.027028599127484246,
      -0.030082404265632575,
      0.01133301017935046,
      0.003897237033446437,
      0.07661027666894603,
      0.018253999158985627,
      0.017449345911554615,
      0.0020000000308496653,
      0.0015084828150702864,
      0.017413476090291376,
      -0.020785264178381,
      -0.01016965584100824,
      0.3661173048957828,
      0.5263111972855066,
      0.4266117304895783,
      0.39937954435288414,
      -0.024110518662142512,
      -0.012137663596703829,
      -0.00433349491032477,
      -0.05207949587978672,
      0.12148327678138633,
      0.02971400872515754
    ],
    "std": [
      1.1792458510301618,
      0.6845758919744385,
      0.6683021534417868,
      0.4587888089500683,
      0.29470086891603225,
      0.31862489880142364,
      0.3307606600467312,
      0.12198424045489757,
      0.03503649568645407,
      0.058663437211036576,
      0.20259781854845937,
      0.999783963060639,
      2.2148057123585874,
      5.380650220983626,
      5.930528567323737,
      5.2474677786743325,
      6.261133687965461,
      1.0256196459555,
      1.1086003352413372,
      0.7977857318536814,
      1.1961167939873905,
      1.1821039643104228,
      0.6704476229769715
    ]
  },
  "layers": [
    {
      "W": [
        [
          0.1521307896951644,
          -0.6055451337277368,
          0.09065608159539736,
          0.3475117221165419,
          0.04593366534870752,
          0.4081326281825682,
          0.08585320528063783,
          -0.6433687900570134,
          0.5523551471740511,
          0.22818712380670453,
          -0.4946172103378427,
          0.21854115206137303,
          -0.08052038129188341,
          0.45482274608867096,
          -0.2975968028588359,
          0.09182447821406972,
          0.19016271266976845,
          0.2586019108129648,
          0.09693841057723383,
          0.3703839628816982,
          -0.12712264443517343,
          -0.5825504783038918,
          -0.11188809383380716
        ],
        [
          0.05656578678489418,
          0.6016145406968224,
          0.30782841701539143,
          1.0309564219049203,
          0.28459638357948186,
          0.14636463075744446,
          0.2777340386450089,
          0.017515167902868126,
          -0.16563407463680432,
          0.2566242332557926,
          0.2967170582957138,
          -0.07499997314094779,
          0.9556795420843827,
          -0.06764097850937388,
          -0.1500984159854223,
          -0.12765988885232216,
          0.9112905853850038,
          0.2296176723581462,
          0.2861449157085614,
          -0.0046808541301521615,
          0.0903396704384115,
          0.020867342777211605,
          0.2980033841639478
        ],
        [
          0.5951036681281443,
          -0.1625982038758984,
          -0.21956499873408725,
          -0.059470461172268264,
          0.46536063231408586,
          0.3924077776761432,
          -0.34321218099249834,
          0.3954415670553338,
          0.020744129418170023,
          -0.45180785714558613,
          0.7096143729527655,
          -0.3883641043492183,
          -0.5980325350024804,
          -0.12063007506245034,
          0.20460370819271786,
          0.22223810549716527,
          -0.3719302542147637,
          -0.18416577428680223,
          -0.40064872482824637,
          -0.3041981147093648,
          -0.6481651402554841,
          -0.3011738708228621,
          0.22702067096328368
        ],
        [
          0.2824478227558594,
          -0.7943005482883866,
          -0.5052596756100812,
          -0.3747016084683617,
          -0.8157642452445559,
          -0.1356000945048669,
          0.2728433068782825,
          0.06562043158105241,
          -0.28072653270807646,
          -0.49117956898479526,
          -0.013244071735921147,
          0.26617160203394097,
          -0.6608027544867038,
          0.7269125493946379,
          0.05367014440872424,
          -0.21692550371138544,
          -0.6745090376346025,
          0.21377997075529137,
          -0.11102733385220094,
          -0.143265132096201,
          0.49223766462614205,
          0.32274121133886086,
          -0.04068305681552945
        ],
        [
          -0.5569978832467835,
          -0.48372457832846466,
          -1.2355949121215934,
          -0.36486127060384316,
          0.05351924920974892,
          0.011089597427852335,
          0.49250739454913295,
          0.02433943749167522,
          0.21757252631094795,
          -0.2142019122535467,
          0.4653045656746878,
          -0.44094541983198826,
          0.009769264522722022,
          -0.07065115310914058,
          0.32829585540941847,
          0.282041668435004,
          -0.3233842761466988,
          -0.05045343246249057,
          -0.1764258703474136,
          0.30554021488262056,
          -0.18062030542465193,
          -0.33338995759177475,
          -0.58059361172069
        ],
        [
          -0.2597668347886186,
          0.1618473361722341,
          -0.2852926584955769,
          0.6042881638502636,
          0.003494211260310077,
          0.5250394145087706,
          0.7154665913382171,
          -0.2060027814612261,
          0.10588064472200294,
          0.05294503895528533,
          0.5387030999597461,
          -0.019457747608695036,
          0.20430471375370063,
          0.3820438083214396,
          0.8655478982405206,
          0.535162249914853,
          0.3706947995345613,
          -0.3005728094806173,
          0.1520665745435094,
          -0.3363013540199558,
          0.5152302459629038,
          -0.20279371815693145,
          0.4327535109589147
        ],
        [
          0.15872189569348574,
          0.7459946515007168,
          0.3589576916739946,
          0.10684435999804208,
          0.49885066560723434,
          0.057118590530351704,
          0.6599718535640154,
          0.23465695325816,
          -0.11114068785808504,
          0.28352321947641757,
          -0.3289149831204358,
          0.702576654087659,
          -0.11325498934442454,
          -0.05850085670240621,
          0.16183743492483973,
          -0.29554654035614136,
          0.49308873545734966,
          -0.03887530625420486,
          0.08759049462922215,
          0.5085522206791919,
          0.37832014528602487,
          0.5006255477456725,
          -0.17467246267562417
        ],
        [
          0.5273772760937016,
          -0.5464509878534596,
          -0.6166844593787697,
          -1.2716480960193577,
          -0.3983760383618882,
          -0.16469963468053764,
          -0.18840841039959766,
          0.05046004085968651,
          -0.004255020578081834,
          -0.7864197686101191,
          -0.03242312830983516,
          -0.1665855816155633,
          -0.5123808919576999,
          0.0022185604352354255,
          -0.09241034544531035,
          -0.21836274956422413,
          -0.1956110701208323,
          0.18819179342175896,
          0.04323756365150603,
          0.27445239445270353,
          0.029490880958229902,
          0.36290360976093944,
          0.11919192054431169
        ],
        [
          0.3518780942029262,
          -0.8582425870640361,
          -0.7024654065168219,
          -0.3480782867097705,
          0.03025096242154039,
          0.21017288602805237,
          -0.09691373907335679,
          -0.038951927682078294,
          -0.17288743235167214,
          -0.19660417385033002,
          0.4707831348773428,
          -0.21848761756726878,
          -0.1806925553497719,
          -0.37993398347197155,
          0.0372055516506639,
          0.6103134520790227,
          -0.715149952294783,
          -0.42934699661487374,
          -0.1552517769664611,
          -0.7110291619667128,
          -0.23276509493174932,
          -0.029150909432398425,
          0.27624263526267223
        ],
        [
          0.44827739765620217,
          -0.2112729573161039,
          0.311023024757482,
          -0.029115260802230144,
          0.40696683946402845,
          -0.0599051719156502,
          -0.2975624568051401,
          0.03806671979441356,
          0.004537430053128111,
          -0.17042718076322347,
          -0.2703843000190902,
          0.014951783065019392,
          0.5324608169869256,
          0.0897211676538652,
          0.23586322912923785,
          0.3514585598329116,
          -0.4316955099855914,
          0.01938756423800183,
          0.05774591213194243,
          -0.3691576035057457,
          -0.1666417255591672,
          -0.49053644603634594,
          -0.3330541570719116
        ],
        [
          -0.2668568575411118,
          -0.969581626604733,
          -0.4615076862885929,
          -0.7079493883180108,
          -0.3388838680882422,
          0.14093447746704335,
          -0.4394447271007005,
          -0.28583685581580265,
          -0.06713359372141953,
          0.3141536776588605,
          0.1776186709752664,
          -0.37652282379519064,
          -0.6733610264677815,
          -0.43489521148605875,
          -0.1689134521047344,
          -0.07349356854134169,
          -0.219770385925984,
          0.20000911453536893,
          -0.661461413822847,
          0.08862932289357497,
          -0.6406207990217929,
          -0.2660884116717392,
          0.1998354594086181
        ],
        [
          0.9855312986507971,
          0.7936489100885227,
          0.5266427176294666,
          0.5051330532820776,
          0.5398862590352497,
          -0.5235550089758293,
          0.3832054797940088,
          0.08700345129175367,
          0.21102843322816028,
          -0.006305323899932058,
          0.2567927929776146,
          -0.3310546485830567,
          0.17837072195591783,
          0.4489766143088714,
          -0.09877389695003175,
          -0.028792585445412258,
          0.11371592043480497,
          -0.16738444798545757,
          0.2791540209391672,
          0.2521934803013798,
          0.12705675430575797,
          0.49588357823745033,
          0.2051752205888617
        ],
        [
          0.7522903089226226,
          -0.10752859038534679,
          0.20653810416863405,
          0.0032982992710036733,
          0.7890478159226729,
          0.02813910657776421,
          -0.06478830510609754,
          -0.41443874052111973,
          -0.19653689313637587,
          -0.38319916192455555,
          -0.012508834504701182,
          0.06356892517059694,
          0.28909586059382447,
          -0.1295478011686282,
          0.22940934057145307,
          0.26269454683254695,
          0.4416969129138225,
          -0.28644649415586293,
          -0.24281907600302688,
          -0.020882995798436985,
          -0.27168951154840065,
          0.25340916784683126,
          0.47065832905931304
        ],
        [
          -1.182540670376425,
          0.6962653528323328,
          0.06936691212553432,
          -0.11756557874472873,
          -0.1979316360890319,
          -0.6734988907050196,
          -0.6628000251388889,
          -0.27571656119845794,
          -0.4755501525756217,
          0.10867930680605031,
          0.08414740387815489,
          0.2092375831434481,
          0.2197808430789951,
          0.12128003276473193,
          -0.3932719758753916,
          0.23393509784167288,
          -0.24478593629621634,
          0.20876580086165045,
          0.08610048264503749,
          -0.14745460254112566,
          0.30995294111188143,
          0.09029320553663071,
          -0.23903375579311334
        ],
        [
          -0.6472782099681004,
          -0.4460299719647603,
          0.21341603221571182,
          -0.2512927757835503,
          -0.5363214577835818,
          0.12692241915986552,
          -0.42501750841877384,
          -0.2099400421311194,
          0.06324756915871478,
          -0.5125664835610156,
          -0.0987890874411878,
          0.2503717648963828,
          0.4468662003829581,
          -0.4604499985948516,
          0.14600268281641604,
          -0.26051875637299327,
          -0.5858883728152817,
          0.03687660462983027,
          -0.29440437759802135,
          -0.45312815470482926,
          0.09585716122909684,
          0.30653827464345296,
          -0.5267024222381689
        ],
        [
          -0.5578488856358687,
          -0.3449271981330733,
          -0.596737222429964,
          -0.7414431304168209,
          -1.0052811795965735,
          -0.012048299908152437,
          -0.14117449953498248,
          0.06997314946866783,
          -0.023033626308928478,
          0.1623150687208774,
          -0.2563646792829491,
          0.016515971510801395,
          0.47041482145728397,
          0.3561816501379844,
          -0.05969467388195117,
          -0.0017775522760117312,
          -0.20903565314899747,
          -0.03955186637098631,
          0.20934310776759432,
          -0.23880264879455798,
          -0.06956352242587303,
          -0.2694720789211049,
          -0.12485324570054888
        ],
        [
          -0.5698711401723651,
          0.7794242443586535,
          1.171341773113576,
          0.6233562913468919,
          0.18270148756449606,
          0.4826842693451652,
          0.009037618301897025,
          0.13182260126184886,
          -0.0838242102283645,
          0.21078220605065928,
          -0.0804700881239334,
          -0.033961337580129466,
          0.3545162983761752,
          -0.10179306265677267,
          0.12273416808347866,
          0.07301353772090044,
          -0.5462634513216136,
          0.011542511093900427,
          -0.27882805616328404,
          -0.02274393509643713,
          -0.17758973214280643,
          0.010045996563486157,
          0.16444133258104263
        ],
        [
          -0.5703737871033118,
          -0.672919865958608,
          -0.04819051868281759,
          0.41347440738551705,
          -0.07396167668380557,
          -0.7669629289142069,
          0.14189669289776385,
          0.022743698847888953,
          0.3495307736589684,
          0.28519857977462676,
          0.24613034745025764,
          -0.18631405056643077,
          0.27747979784359156,
          -0.18956183188128933,
          -0.39092892780594624,
          -0.40872403697353366,
          -0.11523055070259212,
          -0.055783342260565145,
          -0.11500100578763481,
          -0.2538754855562495,
          0.06665943377535982,
          -0.11164072733250473,
          -0.6986232990637723
        ],
        [
          0.7423875192687595,
          0.15390921336641827,
          0.09535967776034104,
          0.2027034887654222,
          -0.015667889231271066,
          0.1093808934055353,
          -0.100314235419139,
          -0.08763543944180202,
          -0.4048118905766836,
          0.18127141388140128,
          -0.488251726869217,
          -0.026353062333794103,
          -0.3998000780620875,
          -0.20300687597592923,
          0.07153513909521605,
          0.5079631323368634,
          0.1326411523453898,
          -0.5496542910557378,
          0.7529001737851422,
          0.40671691640974783,
          0.5825850071352292,
          -0.4674699348367017,
          -0.03159790685998209
        ],
        [
          0.2342848999924079,
          0.5711141098136685,
          0.4042159516714406,
          0.7701619976759789,
          0.8944844901823502,
          -0.25873241200840114,
          0.37629128352393143,
          -0.1223576019950111,
          -0.1951821145799283,
          -0.06838156644158276,
          -0.2718595328591836,
          -0.18612115234990861,
          -0.33376822913535803,
          0.290649327203104,
          0.25663137623167087,
          0.36430572064574984,
          0.15601432126154618,
          -0.016185966695085863,
          -0.2223018334100007,
          0.23027085772777564,
          0.035908110412511324,
          0.08818858430120093,
          -0.05697370849785865
        ],
        [
          0.4335919794919042,
          -0.02399766881747847,
          0.05306767108548988,
          0.5033720761134483,
          -0.262537265651874,
          -0.09155779153327576,
          0.2562123730766802,
          -0.4261609250559713,
          0.11367822489925151,
          0.5805395806601733,
          0.00739950064457919,
          -0.29233867100168665,
          0.16471798188957212,
          -0.3714972456943413,
          -0.33315692887356474,
          0.42086353397533216,
          -0.06078750258874647,
          -0.1836758146320534,
          0.5566882060613622,
          -0.40321117847855165,
          -0.11164492280178644,
          -0.29284461578084653,
          0.2656794424649375
        ],
        [
          -0.47483475954669446,
          0.1335576757931638,
          -0.3512084229697532,
          -0.08761086239822102,
          -1.2414848824457174,
          -0.12869719921634262,
          -0.2864689692182202,
          0.34151742204577407,
          0.0826848978934921,
          0.30190399632687204,
          -0.28340134621383356,
          -0.2283513918130972,
          0.07225681469116493,
          0.43159235607144075,
          0.3210313050501664,
          -0.45077474962524244,
          0.23392427613131966,
          -0.07352031420939327,
          -0.9174739263996614,
          -0.02756746458063358,
          0.7121805258524133,
          -0.2085120270358783,
          0.1421192695507624
        ],
        [
          0.1262950349121917,
          -0.04791759572735597,
          -0.2957778360090753,
          0.21965106537630696,
          0.06528321167126733,
          0.30976607644824866,
          0.5916884277609151,
          0.22265256124065622,
          9.520787020498894e-05,
          -0.31298056560685694,
          -0.5431944506193462,
          -0.20599575097543074,
          -0.7397789399713562,
          -0.029265233807899634,
          0.008830934484534612,
          -0.12378585617434694,
          0.052679845745774036,
          -0.14559566915520455,
          -0.7651278904004242,
          0.40830095134986905,
          0.10552322142386392,
          -0.05006585983205278,
          -0.10436422816831833
        ],
        [
          -0.3886183107912034,
          0.007854661189741742,
          -0.8363328771377189,
          -0.24465423475913245,
          -0.6388834415459987,
          0.32576903666000323,
          0.09591680477681695,
          0.5744936386531405,
          0.20548199915405688,
          -0.353015290805241,
          -0.22503792279174645,
          -0.2939746984378309,
          -0.7673163137508718,
          -0.31604898675035326,
          0.5303943277982754,
          0.2859616343219055,
          0.48754463952604854,
          0.027125897751934757,
          -0.3816717907103872,
          0.42639924100177584,
          0.12294121232832926,
          0.38383454025912933,
          -0.051480431978922395
        ],
        [
          0.24184041453329325,
          -0.02495562724528054,
          -0.39003235646701934,
          1.0562629169438833,
          0.09998541164251572,
          -0.07845548243894344,
          0.2499083923944817,
          0.41031273608848223,
          0.31381912038322346,
          -0.4557931675866812,
          -0.13783881426175357,
          0.07685917291852304,
          0.7093975536899276,
          0.11287072375773642,
          -0.3217114292621802,
          -0.46331859240571754,
          0.5053449635624724,
          0.29879801680388246,
          0.27095050632913364,
          0.1013996520610741,
          0.309500062102413,
          0.2822108744460862,
          0.25105907714360415
        ],
        [
          -0.027145337540889138,
          -0.5803970272696748,
          0.06022214320966573,
          -0.022471474766775783,
          -0.13970736151499563,
          -0.046388988158268654,
          0.008030275627332278,
          0.07051099775729579,
          -0.5332436990263514,
          0.9667730436671351,
          0.02832585811032366,
          -0.29061438020678887,
          -0.2861264219163487,
          0.6315055760982919,
          0.4759463995995605,
          -0.0963484864186933,
          0.4871233790925039,
          -0.20620821093863773,
          0.10468980709851947,
          0.48269119440593755,
          0.02589644548519191,
          0.292336069785758,
          0.06148665417674624
        ],
        [
          0.015991506796962117,
          -0.04758077281335378,
          -0.7510682268707366,
          -0.4928921556573217,
          0.8101395299682906,
          0.07185660673329064,
          -0.008317361990612551,
          -0.1515347304133236,
          -0.16717491968694045,
          -0.2510692880620001,
          0.05728773963998573,
          0.11314173755804384,
          -0.44164114952228267,
          -0.15260231938785004,
          0.0883969403453219,
          0.5460843430652201,
          -0.01648856420111817,
          -0.21950807111701806,
          -0.5027626035394702,
          -0.7628455706226728,
          0.1472179720533321,
          0.11521644011228688,
          -0.6347532959060809
        ],
        [
          -0.2714939767923283,
          -0.2790293631434534,
          0.287556572417923,
          -0.48896197383994944,
          -0.3335992845107256,
          -0.18479479982414884,
          0.011873928868410077,
          -0.24435848706509913,
          -0.6416606106155212,
          -0.06381445585755391,
          0.07065054309150859,
          -0.2806007757244864,
          1.1108231477957171,
          0.33022531858920634,
          0.48935748415019276,
          0.35045684356922535,
          -0.3585899206890426,
          -0.04060512784660303,
          -0.04036207915637447,
          0.16293061813895737,
          -0.4104603138532387,
          0.04768640704840898,
          0.278329670443049
        ],
        [
          0.11384413803559203,
          -0.5061809128244658,
          -0.036054422492897226,
          -0.3614876762805634,
          0.9218961475681259,
          -0.22475083691411496,
          -0.22126410828248877,
          -0.4139799807661129,
          0.3449138034864093,
          -0.03335687826472168,
          -0.5659173201673288,
          -0.09102089163028242,
          1.056131443423134,
          0.05803675533957928,
          -0.5074890679764521,
          0.3113321235350569,
          0.1270452649004189,
          0.2547683006858953,
          -0.016307277697842435,
          0.15241134666052758,
          -0.519775236558868,
          -0.3371214675155763,
          0.11613919385768434
        ],
        [
          -0.4425949824899839,
          0.37125360042013317,
          0.5005373023641909,
          -0.11447873769500597,
          0.6474163936182967,
          0.34214289528515274,
          -0.05187762749068895,
          -0.37748797635593506,
          -0.03378996238789614,
          0.06388872130131673,
          -0.03547900014255226,
          0.44698376480961616,
          -0.3709295003827674,
          0.453509942662984,
          -0.03698194467290339,
          0.16961963435641386,
          -0.46888208607982457,
          0.5068613750501934,
          0.10418766247702196,
          -0.45368412873230346,
          -0.20089592794241087,
          -0.033174584263368924,
          -0.15206537766922348
        ],
        [
          0.29341352376331803,
          0.6544816920743427,
          0.5891204505787614,
          -0.048298787510691506,
          0.2771285527852541,
          -0.2032927339662289,
          -0.0935069212553183,
          0.07116768007847349,
          -0.038483513234869614,
          -0.5675467047724488,
          -0.17992583037257234,
          0.08423021037191274,
          0.03979130382232223,
          -0.22198594002289973,
          -0.23415760362851923,
          -0.19472161307052585,
          -1.319032242356523,
          0.09577896044072995,
          -0.19697233012507995,
          0.3171732124652246,
          0.041437146029477116,
          -0.006312598674199125,
          0.020036663492507732
        ],
        [
          -0.5250750401911812,
          -0.008417425445135261,
          0.19340472631173972,
          0.9799637932537919,
          -0.3895361142125187,
          0.10605941936221353,
          -0.615408867325741,
          -0.32768926294942646,
          -0.05255109875200612,
          -0.15713638263405508,
          -0.053090541480568014,
          0.20917136585809182,
          0.28725743703283857,
          0.0015060197366752136,
          0.08175637251004601,
          -0.2222768347465573,
          0.019237408043023627,
          -0.3658700161383802,
          -0.09832303082226282,
          -0.14184505218292534,
          0.9219428847423563,
          -0.3114981753482105,
          0.10048783502127162
        ]
      ],
      "b": [
        -0.30633240415796953,
        0.08701832609120089,
        -0.7771516185189342,
        -0.17719781507306942,
        -0.6097779995523959,
        -0.6961307205094774,
        -0.26599833340562656,
        -0.33334545492595613,
        -0.9170066561225524,
        0.5891472954535005,
        -0.4176545183799002,
        -0.292746461015101,
        0.16539677826200408,
        0.050543861078437564,
        -0.3927660799578475,
        0.7857779481680678,
        -0.4336442500882148,
        -0.5364181552167675,
        -0.41699932418498026,
        0.6896039463986282,
        0.43566080259102896,
        -0.23633114164447624,
        0.5297647148601388,
        0.08925942776498434,
        -0.17977209353236867,
        -0.3644535236883482,
        -1.0566187620279333,
        -0.3199115170989355,
        -0.5072390540250356,
        0.12056998513876399,
        0.21686981844772033,
        -0.09213692590890499
      ],
      "activation": "relu"
    },
    {
      "W": [
        [
          0.13122735114897915,
          -0.4797644716591023,
          0.1453873893549739,
          -0.311275154249338,
          0.3077663759429104,
          -0.11495905800423227,
          -0.05177949618183296,
          -0.5069617039439962,
          -0.7906373077033065,
          0.16496053979861647,
          0.2872212031767245,
          -0.24886210159294847,
          0.17685668598875753,
          0.18642613932499738,
          0.15233265594475986,
          -0.25319219501718837,
          0.3172785478653289,
          0.006739410558270276,
          0.23476438911329037,
          0.05032350579502204,
          0.6669517187535673,
          0.32966017239941164,
          -0.13639746952348966,
          0.5661225831253999,
          -0.1655735748529234,
          -0.4959181444952506,
          -2.1686075824382836,
          -0.7197869150820144,
          -1.2564121795851209,
          -0.15813941106907614,
          0.50379592489514,
          -0.6270709098198937
        ],
        [
          0.2268441468606921,
          0.5523418648235566,
          -0.4308658828981667,
          -0.8150708098316459,
          -0.11731065415646956,
          -0.9035678555648003,
          -0.077785707602952,
          0.6565360271572093,
          0.1858191911178142,
          -0.22944102527265708,
          -0.15071142938120058,
          0.3464651714468323,
          -0.021341531108327195,
          -0.7054105099886722,
          0.02349085026736544,
          0.40051479487418556,
          -0.07159257877312097,
          0.3391127189735147,
          -0.03750765715557435,
          -0.5038856112003317,
          0.12731788478704129,
          -2.623713970596274,
          -0.08194823142275831,
          0.12161420655325787,
          -0.17737361414809052,
          -0.6513993385463104,
          0.30555752699436034,
          -0.5371201254069391,
          -0.7205298381924328,
          -0.7130303501275617,
          -0.057760755928363286,
          -0.0386579007099239
        ],
        [
          -0.49904182030140576,
          0.31614888606995817,
          -0.34760750344677,
          -0.27121535826533283,
          0.7027212087031663,
          -0.2856692786949656,
          0.223470395990052,
          -1.2889108769642093,
          0.548338936004262,
          -0.42486727997213625,
          -0.49813779614358933,
          -0.39900968012014554,
          0.09702360295500359,
          0.26745758485324456,
          -1.2097770828418337,
          -0.30675650877922267,
          0.5716700226478151,
          -0.4121440610281321,
          0.2529103110268461,
          0.03318079479494329,
          0.34970197571324185,
          0.1733119570865659,
          0.2153700939195624,
          -0.3392138430797506,
          -0.053998748435243035,
          -0.46992347452773003,
          0.0006510874483370292,
          -0.4262315106806667,
          0.24732986629369766,
          -0.022607065072828305,
          0.36968019628572385,
          -0.2926061389874238
        ],
        [
          0.1318395706243307,
          -0.2258677922477418,
          0.541019003420909,
          0.2081431380530304,
          -0.5232121135198795,
          0.5426327806073863,
          0.5112929327842316,
          -0.3274941994856977,
          -0.6947434937502908,
          0.06855536996268476,
          0.5740434192729776,
          0.035583236052500064,
          0.5648143970552091,
          0.09281357626247437,
          -0.4392198420487039,
          0.6578824100908358,
          -0.38409479948613245,
          0.027856918809588335,
          0.05773041001002428,
          -0.01613152373048393,
          0.027308933458057256,
          0.059997661019490674,
          0.27568384938846174,
          -0.3231409988598938,
          0.37948128533137304,
          0.5161280716704556,
          -0.25075327168094363,
          -0.4066467625945812,
          -0.24176769493174438,
          -0.3689340758116263,
          -0.3524126200480328,
          -0.21181685063550193
        ],
        [
          -0.19248580524031392,
          -0.2806180292957215,
          0.11016280329687314,
          0.4337607410038965,
          0.737065223890703,
          0.25492583033524663,
          0.3204465689849851,
          0.029308834754202352,
          -0.13465595507692002,
          -0.3395150623625891,
          0.22074998048180425,
          0.153086035598581,
          0.05347652566942062,
          -0.19914443863036774,
          0.30382038031936304,
          0.39574636287280907,
          -0.5656110634738408,
          0.5687827108067931,
          0.4858940033236773,
          -0.9016741255151041,
          0.12253154836908102,
          0.6238613730244187,
          0.2984357815148142,
          0.08801961850791279,
          -0.3488771412897323,
          0.004615339909856997,
          -0.5976328728622943,
          0.14824073136737745,
          0.35417527413337885,
          0.38549112650814765,
          -0.42563254459844907,
          0.26128637835528185
        ],
        [
          0.035514263041725135,
          0.2902925337218186,
          0.5611753113572221,
          -1.0230402644225678,
          -0.5732867780748874,
          0.024550648295443,
          0.3863118553867524,
          -0.41782477555781294,
          -0.7442747782379705,
          0.4019798919133194,
          0.02528736950486162,
          -0.06515912610145358,
          -0.28003829771261846,
          0.2398136029879909,
          0.054352094531003904,
          -0.19060580637062652,
          -0.01023140053714707,
          0.3451645347071842,
          0.2334831077500129,
          0.14201398691327066,
          0.19299539632859392,
          0.03689772681977017,
          0.21984295036574425,
          -0.03652168072843212,
          0.04455811252505755,
          -0.03995768663041879,
          -0.45638312672647424,
          0.3861596612987293,
          -0.23692216345164296,
          -0.12483405565946248,
          -0.5426944303267155,
          -0.26163483581017044
        ],
        [
          -0.04485653146195077,
          -0.8152340875416303,
          0.49095206280508297,
          -0.10332947714443275,
          0.5477851887281725,
          -2.3589828755067797,
          -0.6485372163965867,
          0.1723355266293485,
          -0.7960145691684518,
          0.3581350847207138,
          -0.06399907307346715,
          -0.30638587573453857,
          -0.07216131611851283,
          -0.6154547000137078,
          0.40750975015765933,
          -0.006352083324480673,
          -0.5308642466850013,
          -0.110629517484581,
          0.047993856171053624,
          0.2588149373495701,
          -0.07914414175092517,
          0.020973833688097625,
          -0.4519198470918803,
          0.021934761092714656,
          0.47128496737544184,
          0.3591633425802127,
          -1.1956885047771244,
          0.14597765999870155,
          0.10350475057018128,
          0.6185477518331172,
          0.017866644849251538,
          0.3820071398057275
        ],
        [
          -0.6416391544646849,
          0.2695082185016713,
          0.2816171610062192,
          0.37235393828609964,
          -0.2541199965812414,
          0.1253556265636584,
          0.05440375264360759,
          0.5017895298089163,
          0.15458205712657236,
          -0.1346060711222192,
          -1.2568880748037303,
          -0.18108622412046285,
          -0.5857110209684432,
          -0.25358288958757835,
          -0.8488565983115894,
          0.16826981520554402,
          -0.05357477581955526,
          -0.489378874607433,
          -0.41223599086100626,
          -0.05357996674611808,
          0.06730669041272924,
          -0.01205715303735438,
          0.1066380585212835,
          -0.16264798315178594,
          -0.9728732193072809,
          0.4619799150248333,
          0.36824778551739473,
          0.20812217767011734,
          1.1398860213358455,
          0.27470938643491244,
          -0.04511624192322845,
          0.5743718568235602
        ],
        [
          -0.6720582933336361,
          -0.42134472102757836,
          0.391000678753123,
          -0.64830926928583,
          0.322020706238229,
          -1.9679748599290583,
          -0.051050513950886646,
          -0.23484648906417868,
          -0.4636745175010764,
          0.07508722970122116,
          -1.4276540144196737,
          -0.03038033188054477,
          -0.07139240677868201,
          0.04798760021712558,
          0.14642115900561062,
          -1.332858197974536,
          -0.8698726515126217,
          0.15614598715114847,
          0.32591259142841517,
          -0.06109593738648639,
          -0.5407097396834379,
          -0.01841013805247776,
          0.3002452811380672,
          -1.8011513882982753,
          0.3618941692601106,
          0.6943874571352306,
          0.07019044649886992,
          -0.5433942226236376,
          -0.0877162391745373,
          0.2188857969085182,
          0.19201205796344412,
          -0.0832292816188687
        ],
        [
          -0.2660674741783515,
          0.4107267070326718,
          -0.345813885584129,
          0.5219608525605726,
          0.16476350713774016,
          0.3874467937224753,
          0.6177743496723133,
          -0.2035841286416576,
          0.03425620960544541,
          0.07204810527005842,
          0.1508238101918267,
          0.41172435262307167,
          0.34129816553779807,
          -0.16256591243791174,
          0.3703744389984335,
          0.20282701409515144,
          -0.14745932689143823,
          -0.2266223817124692,
          -0.10887868435450387,
          -0.5844172919185588,
          -0.3568271758100061,
          0.33970750212130096,
          -0.13970360575594137,
          0.3818875175012072,
          -0.7175329042976738,
          -0.41889166217604173,
          -0.10960182133758599,
          0.3772322881663181,
          0.22485128262448278,
          0.31547747994808983,
          0.10084509906358188,
          -0.4914208416712656
        ],
        [
          0.6331217487278494,
          -0.601110444774589,
          0.822030085361675,
          0.054573306561418254,
          -0.17769723651566288,
          0.27372289160619573,
          -0.4682545467407778,
          -0.14900285661418958,
          0.5567196242138891,
          0.15679984828680196,
          -0.6162362264310993,
          -0.02586000863970154,
          0.21800266718874003,
          -0.11706463741512052,
          0.545305008777839,
          0.5394939040828116,
          -0.8659668225720364,
          0.5781309310900712,
          -0.08809631315326327,
          0.019850454913324465,
          -0.03947215551382015,
          0.47044805369556314,
          0.10119208685735956,
          0.2948156255020546,
          0.01186567288398253,
          0.3908266854047641,
          -0.44165563396432744,
          -0.06648013805462287,
          -0.18656992712709217,
          -0.6044535302383811,
          -0.2531531987220703,
          0.11339278353716815
        ],
        [
          -0.07044612953025912,
          0.5214187705185591,
          -0.4083452719800719,
          -0.12226274702912111,
          0.30460200403274756,
          -0.5905686067802962,
          -0.2741334203702906,
          0.8645014572882875,
          -0.193850784659369,
          0.5996624097507651,
          0.36612517287484736,
          -0.06035248435889441,
          0.26637887914665737,
          -0.11374043556694464,
          0.3872749842791105,
          -0.6032998820991733,
          0.27435124006667044,
          0.15375186359749743,
          -0.2576760612595545,
          0.14571863090883802,
          -0.12582801903253482,
          0.023680217579282698,
          0.16373933559384193,
          0.6777984921431267,
          0.12300375187927033,
          0.029491525713151723,
          0.23174331915566912,
          -0.08462243527473383,
          0.009436098061520612,
          0.6048128087525335,
          -0.17416019368521626,
          -0.5274431151703255
        ],
        [
          0.3349802112373114,
          0.5700488273387123,
          -0.3754794582074557,
          -0.15422072305899692,
          -0.6325119868264464,
          -0.16401620306416237,
          0.32117335580840495,
          -0.014833678131067528,
          -0.37215086687851434,
          0.3912411011368712,
          0.6362111303332558,
          0.24303938149647372,
          -0.1164819922950989,
          0.12947154450241632,
          -0.19107370631306406,
          -0.17186687715698976,
          -0.16315050299481307,
          0.3348655241470419,
          -0.08680789833962933,
          0.2612083816083314,
          -0.7757305032025041,
          -0.7044790301372337,
          -0.017173592143197625,
          0.27436193960647587,
          -0.601027893847574,
          0.37479933169801527,
          -0.4110132898316434,
          -0.1979639151477624,
          0.1259204676437546,
          -0.16194910875528423,
          -1.307464577746008,
          -0.6089264737658129
        ],
        [
          -0.1386706946430894,
          -0.10958442824106349,
          0.04302240080108074,
          -0.3456723638609352,
          -0.2264485994679434,
          0.268796485255027,
          0.1267583832943308,
          -0.016514278447605085,
          -0.15897217601929747,
          -0.23910360927185564,
          -0.5218511709760216,
          -0.8602771376517105,
          0.09388506989779115,
          0.5057737744366163,
          0.3324185365219315,
          -0.40532164277047666,
          0.5014410961455441,
          0.6724964021822721,
          -0.6273707467332524,
          0.1921371974546866,
          -0.016372876461994316,
          0.48710664568172957,
          -0.15530797091126494,
          0.32042766482603247,
          0.3532069435481013,
          -0.18967863597866177,
          0.4401250868211133,
          -0.21795010348428207,
          0.21314087579974622,
          0.05805611689390236,
          0.45305309606993016,
          0.41112422825624945
        ],
        [
          -0.3916706972387999,
          0.2523367202012269,
          0.34086503644364186,
          -0.2895274938756868,
          -0.49437076709237865,
          -0.09699891829725649,
          -0.20849594236995075,
          0.4643755371687153,
          0.41885691332375197,
          -0.1050717962095116,
          -0.3504013022641025,
          -0.59927449450888,
          -0.2397112355368053,
          0.8077063446761645,
          0.5546472616314615,
          0.28551782289975974,
          -0.0029092082280717272,
          0.4471460804816208,
          -0.3187972877653209,
          0.023148169177934618,
          0.44008302618709066,
          0.24173583115200611,
          0.4080854966493095,
          0.09318023917983148,
          0.3207129942356964,
          0.18149659770876544,
          0.3560942086388123,
          0.2806924967941331,
          0.4893676036424899,
          -0.1916529234535729,
          -0.14131467586133628,
          -0.2737093489330472
        ],
        [
          -0.36934606841327106,
          -0.16747343013054766,
          -0.8562302831933816,
          -0.0012974978494111164,
          0.4743332950415405,
          -0.6342277687990086,
          -0.23027711151748032,
          -0.2684593991408472,
          -0.23962091925102164,
          0.0017957902544710222,
          0.371993102436905,
          0.7788058196575547,
          0.032612791591122466,
          -0.08858080866677233,
          -0.033119865240996145,
          0.18503452398452122,
          0.1966952908361799,
          -0.007076139855733731,
          -0.9472989751034229,
          -0.2537115339254649,
          0.2450520898578146,
          -0.22459351686915907,
          -1.631403055206142,
          0.43579384410999994,
          0.06606309264732685,
          0.43842055974752137,
          0.033544945818497755,
          -0.6763426234898122,
          -0.00039832859049469815,
          0.00441317022919614,
          -0.09034064828743278,
          0.5624517595681078
        ]
      ],
      "b": [
        -0.14488268103089463,
        0.1976448429975942,
        0.8335040030117418,
        -0.7676634697014565,
        0.24788067122686563,
        0.8893293904587691,
        -0.7608653887898098,
        -0.3258941884107993,
        0.3367180164365121,
        -0.6570790295476502,
        -0.030806678383409874,
        -0.24522262515483337,
        0.7369743817923045,
        0.15761853603718712,
        0.5061477980875464,
        -0.07344849425187562
      ],
      "activation": "relu"
    },
    {
      "W": [
        [
          -0.5564108856502229,
          -0.8703311619591084,
          0.3734699424963789,
          0.3337118219776228,
          -0.4759730683786065,
          0.3435583115526076,
          -0.631670627373439,
          0.34506834720999835,
          1.3893011897402179,
          0.3025554877234696,
          0.3426158461221305,
          0.30551897964555136,
          -0.42396747167725507,
          0.31116580710681735,
          -0.48493685089055283,
          0.383589768245742
        ]
      ],
      "b": [
        0.20738909939908673
      ],
      "activation": "sigmoid"
    }
  ]
}